digraph Tree {
node [shape=box, style="rounded", color="black", fontname=helvetica] ;
edge [fontname=helvetica] ;
0 [label="cp <= 0.5\nmse = 0.2\nsamples = 487\nvalue = 0.5"] ;
1 [label="ca <= 0.5\nmse = 0.2\nsamples = 230\nvalue = 0.3"] ;
0 -> 1 [labeldistance=2.5, labelangle=45, headlabel="True"] ;
2 [label="oldpeak <= 0.7\nmse = 0.2\nsamples = 103\nvalue = 0.5"] ;
1 -> 2 ;
3 [label="age <= 41.5\nmse = 0.2\nsamples = 58\nvalue = 0.7"] ;
2 -> 3 ;
4 [label="mse = 0.0\nsamples = 5\nvalue = 0.0"] ;
3 -> 4 ;
5 [label="sex <= 0.5\nmse = 0.2\nsamples = 53\nvalue = 0.8"] ;
3 -> 5 ;
6 [label="age <= 58.5\nmse = 0.2\nsamples = 24\nvalue = 0.6"] ;
5 -> 6 ;
7 [label="trestbps <= 139.0\nmse = 0.1\nsamples = 16\nvalue = 0.9"] ;
6 -> 7 ;
8 [label="mse = 0.0\nsamples = 15\nvalue = 1.0"] ;
7 -> 8 ;
9 [label="mse = 0.0\nsamples = 1\nvalue = 0.0"] ;
7 -> 9 ;
10 [label="age <= 63.5\nmse = 0.2\nsamples = 8\nvalue = 0.2"] ;
6 -> 10 ;
11 [label="trestbps <= 127.0\nmse = 0.1\nsamples = 6\nvalue = 0.1"] ;
10 -> 11 ;
12 [label="thalach <= 149.5\nmse = 0.2\nsamples = 2\nvalue = 0.2"] ;
11 -> 12 ;
13 [label="mse = 0.0\nsamples = 1\nvalue = 0.0"] ;
12 -> 13 ;
14 [label="mse = 0.0\nsamples = 1\nvalue = 1.0"] ;
12 -> 14 ;
15 [label="mse = 0.0\nsamples = 4\nvalue = 0.0"] ;
11 -> 15 ;
16 [label="mse = 0.0\nsamples = 2\nvalue = 1.0"] ;
10 -> 16 ;
17 [label="chol <= 272.5\nmse = 0.1\nsamples = 29\nvalue = 0.9"] ;
5 -> 17 ;
18 [label="mse = 0.0\nsamples = 24\nvalue = 1.0"] ;
17 -> 18 ;
19 [label="thalach <= 158.5\nmse = 0.2\nsamples = 5\nvalue = 0.4"] ;
17 -> 19 ;
20 [label="mse = 0.0\nsamples = 2\nvalue = 1.0"] ;
19 -> 20 ;
21 [label="mse = 0.0\nsamples = 3\nvalue = 0.0"] ;
19 -> 21 ;
22 [label="exang <= 0.5\nmse = 0.2\nsamples = 45\nvalue = 0.2"] ;
2 -> 22 ;
23 [label="thal <= 2.5\nmse = 0.2\nsamples = 15\nvalue = 0.6"] ;
22 -> 23 ;
24 [label="thalach <= 96.5\nmse = 0.1\nsamples = 10\nvalue = 0.9"] ;
23 -> 24 ;
25 [label="mse = 0.0\nsamples = 1\nvalue = 0.0"] ;
24 -> 25 ;
26 [label="mse = 0.0\nsamples = 9\nvalue = 1.0"] ;
24 -> 26 ;
27 [label="mse = 0.0\nsamples = 5\nvalue = 0.0"] ;
23 -> 27 ;
28 [label="trestbps <= 115.0\nmse = 0.1\nsamples = 30\nvalue = 0.1"] ;
22 -> 28 ;
29 [label="chol <= 184.0\nmse = 0.2\nsamples = 6\nvalue = 0.6"] ;
28 -> 29 ;
30 [label="mse = 0.0\nsamples = 2\nvalue = 0.0"] ;
29 -> 30 ;
31 [label="mse = 0.0\nsamples = 4\nvalue = 1.0"] ;
29 -> 31 ;
32 [label="mse = 0.0\nsamples = 24\nvalue = 0.0"] ;
28 -> 32 ;
33 [label="thalach <= 105.5\nmse = 0.0\nsamples = 127\nvalue = 0.0"] ;
1 -> 33 ;
34 [label="oldpeak <= 0.6\nmse = 0.2\nsamples = 9\nvalue = 0.3"] ;
33 -> 34 ;
35 [label="mse = 0.0\nsamples = 2\nvalue = 1.0"] ;
34 -> 35 ;
36 [label="mse = 0.0\nsamples = 7\nvalue = 0.0"] ;
34 -> 36 ;
37 [label="trestbps <= 109.0\nmse = 0.0\nsamples = 118\nvalue = 0.0"] ;
33 -> 37 ;
38 [label="chol <= 233.5\nmse = 0.2\nsamples = 8\nvalue = 0.2"] ;
37 -> 38 ;
39 [label="mse = 0.0\nsamples = 2\nvalue = 1.0"] ;
38 -> 39 ;
40 [label="mse = 0.0\nsamples = 6\nvalue = 0.0"] ;
38 -> 40 ;
41 [label="chol <= 301.5\nmse = 0.0\nsamples = 110\nvalue = 0.0"] ;
37 -> 41 ;
42 [label="mse = 0.0\nsamples = 95\nvalue = 0.0"] ;
41 -> 42 ;
43 [label="chol <= 303.5\nmse = 0.1\nsamples = 15\nvalue = 0.1"] ;
41 -> 43 ;
44 [label="mse = 0.0\nsamples = 2\nvalue = 1.0"] ;
43 -> 44 ;
45 [label="mse = 0.0\nsamples = 13\nvalue = 0.0"] ;
43 -> 45 ;
46 [label="thal <= 2.5\nmse = 0.2\nsamples = 257\nvalue = 0.8"] ;
0 -> 46 [labeldistance=2.5, labelangle=-45, headlabel="False"] ;
47 [label="oldpeak <= 1.7\nmse = 0.1\nsamples = 194\nvalue = 0.9"] ;
46 -> 47 ;
48 [label="age <= 55.5\nmse = 0.1\nsamples = 174\nvalue = 0.9"] ;
47 -> 48 ;
49 [label="chol <= 153.0\nmse = 0.0\nsamples = 117\nvalue = 1.0"] ;
48 -> 49 ;
50 [label="restecg <= 0.5\nmse = 0.2\nsamples = 4\nvalue = 0.6"] ;
49 -> 50 ;
51 [label="mse = 0.0\nsamples = 2\nvalue = 0.0"] ;
50 -> 51 ;
52 [label="mse = 0.0\nsamples = 2\nvalue = 1.0"] ;
50 -> 52 ;
53 [label="trestbps <= 109.0\nmse = 0.0\nsamples = 113\nvalue = 1.0"] ;
49 -> 53 ;
54 [label="thalach <= 159.5\nmse = 0.1\nsamples = 11\nvalue = 0.9"] ;
53 -> 54 ;
55 [label="trestbps <= 104.0\nmse = 0.2\nsamples = 3\nvalue = 0.5"] ;
54 -> 55 ;
56 [label="mse = 0.0\nsamples = 2\nvalue = 1.0"] ;
55 -> 56 ;
57 [label="mse = 0.0\nsamples = 1\nvalue = 0.0"] ;
55 -> 57 ;
58 [label="mse = 0.0\nsamples = 8\nvalue = 1.0"] ;
54 -> 58 ;
59 [label="mse = 0.0\nsamples = 102\nvalue = 1.0"] ;
53 -> 59 ;
60 [label="sex <= 0.5\nmse = 0.2\nsamples = 57\nvalue = 0.8"] ;
48 -> 60 ;
61 [label="age <= 59.0\nmse = 0.1\nsamples = 32\nvalue = 0.9"] ;
60 -> 61 ;
62 [label="thalach <= 152.5\nmse = 0.2\nsamples = 7\nvalue = 0.6"] ;
61 -> 62 ;
63 [label="mse = 0.0\nsamples = 2\nvalue = 0.0"] ;
62 -> 63 ;
64 [label="mse = 0.0\nsamples = 5\nvalue = 1.0"] ;
62 -> 64 ;
65 [label="mse = 0.0\nsamples = 25\nvalue = 1.0"] ;
61 -> 65 ;
66 [label="chol <= 243.0\nmse = 0.2\nsamples = 25\nvalue = 0.6"] ;
60 -> 66 ;
67 [label="ca <= 1.5\nmse = 0.1\nsamples = 16\nvalue = 0.9"] ;
66 -> 67 ;
68 [label="mse = 0.0\nsamples = 15\nvalue = 1.0"] ;
67 -> 68 ;
69 [label="mse = 0.0\nsamples = 1\nvalue = 0.0"] ;
67 -> 69 ;
70 [label="mse = 0.0\nsamples = 9\nvalue = 0.0"] ;
66 -> 70 ;
71 [label="age <= 62.0\nmse = 0.2\nsamples = 20\nvalue = 0.4"] ;
47 -> 71 ;
72 [label="age <= 43.5\nmse = 0.2\nsamples = 13\nvalue = 0.2"] ;
71 -> 72 ;
73 [label="mse = 0.0\nsamples = 3\nvalue = 1.0"] ;
72 -> 73 ;
74 [label="mse = 0.0\nsamples = 10\nvalue = 0.0"] ;
72 -> 74 ;
75 [label="mse = 0.0\nsamples = 7\nvalue = 1.0"] ;
71 -> 75 ;
76 [label="oldpeak <= 0.9\nmse = 0.2\nsamples = 63\nvalue = 0.4"] ;
46 -> 76 ;
77 [label="trestbps <= 126.5\nmse = 0.2\nsamples = 35\nvalue = 0.7"] ;
76 -> 77 ;
78 [label="thalach <= 142.5\nmse = 0.0\nsamples = 17\nvalue = 1.0"] ;
77 -> 78 ;
79 [label="mse = 0.0\nsamples = 1\nvalue = 0.0"] ;
78 -> 79 ;
80 [label="mse = 0.0\nsamples = 16\nvalue = 1.0"] ;
78 -> 80 ;
81 [label="slope <= 1.5\nmse = 0.2\nsamples = 18\nvalue = 0.4"] ;
77 -> 81 ;
82 [label="chol <= 228.0\nmse = 0.2\nsamples = 10\nvalue = 0.2"] ;
81 -> 82 ;
83 [label="cp <= 2.5\nmse = 0.2\nsamples = 5\nvalue = 0.6"] ;
82 -> 83 ;
84 [label="mse = 0.0\nsamples = 3\nvalue = 0.0"] ;
83 -> 84 ;
85 [label="mse = 0.0\nsamples = 2\nvalue = 1.0"] ;
83 -> 85 ;
86 [label="mse = 0.0\nsamples = 5\nvalue = 0.0"] ;
82 -> 86 ;
87 [label="restecg <= 0.5\nmse = 0.1\nsamples = 8\nvalue = 0.8"] ;
81 -> 87 ;
88 [label="mse = 0.0\nsamples = 2\nvalue = 0.0"] ;
87 -> 88 ;
89 [label="mse = 0.0\nsamples = 6\nvalue = 1.0"] ;
87 -> 89 ;
90 [label="chol <= 243.0\nmse = 0.1\nsamples = 28\nvalue = 0.1"] ;
76 -> 90 ;
91 [label="oldpeak <= 1.9\nmse = 0.2\nsamples = 13\nvalue = 0.3"] ;
90 -> 91 ;
92 [label="oldpeak <= 1.3\nmse = 0.2\nsamples = 6\nvalue = 0.7"] ;
91 -> 92 ;
93 [label="mse = 0.0\nsamples = 2\nvalue = 0.0"] ;
92 -> 93 ;
94 [label="mse = 0.0\nsamples = 4\nvalue = 1.0"] ;
92 -> 94 ;
95 [label="mse = 0.0\nsamples = 7\nvalue = 0.0"] ;
91 -> 95 ;
96 [label="thalach <= 150.5\nmse = 0.0\nsamples = 15\nvalue = 0.0"] ;
90 -> 96 ;
97 [label="mse = 0.0\nsamples = 14\nvalue = 0.0"] ;
96 -> 97 ;
98 [label="mse = 0.0\nsamples = 1\nvalue = 1.0"] ;
96 -> 98 ;
}