digraph Tree {
node [shape=box] ;
0 [label="thalach <= 147.5\nmse = 0.25\nsamples = 1025\nvalue = 0.513"] ;
1 [label="age <= 70.5\nmse = 0.2\nsamples = 443\nvalue = 0.275"] ;
0 -> 1 [labeldistance=2.5, labelangle=45, headlabel="True"] ;
2 [label="trestbps <= 109.0\nmse = 0.188\nsamples = 429\nvalue = 0.252"] ;
1 -> 2 ;
3 [label="chol <= 282.0\nmse = 0.133\nsamples = 19\nvalue = 0.842"] ;
2 -> 3 ;
4 [label="mse = 0.0\nsamples = 16\nvalue = 1.0"] ;
3 -> 4 ;
5 [label="mse = 0.0\nsamples = 3\nvalue = 0.0"] ;
3 -> 5 ;
6 [label="chol <= 245.5\nmse = 0.174\nsamples = 410\nvalue = 0.224"] ;
2 -> 6 ;
7 [label="chol <= 174.5\nmse = 0.22\nsamples = 205\nvalue = 0.327"] ;
6 -> 7 ;
8 [label="trestbps <= 115.0\nmse = 0.093\nsamples = 29\nvalue = 0.103"] ;
7 -> 8 ;
9 [label="thalach <= 126.0\nmse = 0.245\nsamples = 7\nvalue = 0.429"] ;
8 -> 9 ;
10 [label="mse = 0.0\nsamples = 4\nvalue = 0.0"] ;
9 -> 10 ;
11 [label="mse = 0.0\nsamples = 3\nvalue = 1.0"] ;
9 -> 11 ;
12 [label="mse = 0.0\nsamples = 22\nvalue = 0.0"] ;
8 -> 12 ;
13 [label="age <= 68.5\nmse = 0.231\nsamples = 176\nvalue = 0.364"] ;
7 -> 13 ;
14 [label="chol <= 175.5\nmse = 0.225\nsamples = 170\nvalue = 0.341"] ;
13 -> 14 ;
15 [label="mse = 0.0\nsamples = 3\nvalue = 1.0"] ;
14 -> 15 ;
16 [label="chol <= 232.5\nmse = 0.221\nsamples = 167\nvalue = 0.329"] ;
14 -> 16 ;
17 [label="chol <= 225.5\nmse = 0.231\nsamples = 143\nvalue = 0.364"] ;
16 -> 17 ;
18 [label="trestbps <= 137.5\nmse = 0.217\nsamples = 123\nvalue = 0.317"] ;
17 -> 18 ;
19 [label="thalach <= 141.5\nmse = 0.247\nsamples = 87\nvalue = 0.448"] ;
18 -> 19 ;
20 [label="trestbps <= 133.5\nmse = 0.235\nsamples = 77\nvalue = 0.377"] ;
19 -> 20 ;
21 [label="age <= 50.0\nmse = 0.225\nsamples = 73\nvalue = 0.342"] ;
20 -> 21 ;
22 [label="mse = 0.0\nsamples = 16\nvalue = 0.0"] ;
21 -> 22 ;
23 [label="thalach <= 138.0\nmse = 0.246\nsamples = 57\nvalue = 0.439"] ;
21 -> 23 ;
24 [label="thalach <= 131.5\nmse = 0.234\nsamples = 51\nvalue = 0.373"] ;
23 -> 24 ;
25 [label="age <= 56.5\nmse = 0.249\nsamples = 36\nvalue = 0.528"] ;
24 -> 25 ;
26 [label="chol <= 209.5\nmse = 0.21\nsamples = 20\nvalue = 0.3"] ;
25 -> 26 ;
27 [label="mse = 0.0\nsamples = 14\nvalue = 0.0"] ;
26 -> 27 ;
28 [label="mse = 0.0\nsamples = 6\nvalue = 1.0"] ;
26 -> 28 ;
29 [label="chol <= 213.5\nmse = 0.152\nsamples = 16\nvalue = 0.812"] ;
25 -> 29 ;
30 [label="mse = 0.0\nsamples = 13\nvalue = 1.0"] ;
29 -> 30 ;
31 [label="mse = 0.0\nsamples = 3\nvalue = 0.0"] ;
29 -> 31 ;
32 [label="mse = 0.0\nsamples = 15\nvalue = 0.0"] ;
24 -> 32 ;
33 [label="mse = 0.0\nsamples = 6\nvalue = 1.0"] ;
23 -> 33 ;
34 [label="mse = 0.0\nsamples = 4\nvalue = 1.0"] ;
20 -> 34 ;
35 [label="mse = 0.0\nsamples = 10\nvalue = 1.0"] ;
19 -> 35 ;
36 [label="mse = 0.0\nsamples = 36\nvalue = 0.0"] ;
18 -> 36 ;
37 [label="chol <= 228.5\nmse = 0.227\nsamples = 20\nvalue = 0.65"] ;
17 -> 37 ;
38 [label="mse = 0.0\nsamples = 10\nvalue = 1.0"] ;
37 -> 38 ;
39 [label="trestbps <= 125.0\nmse = 0.21\nsamples = 10\nvalue = 0.3"] ;
37 -> 39 ;
40 [label="mse = 0.0\nsamples = 4\nvalue = 0.0"] ;
39 -> 40 ;
41 [label="trestbps <= 140.0\nmse = 0.25\nsamples = 6\nvalue = 0.5"] ;
39 -> 41 ;
42 [label="mse = 0.0\nsamples = 3\nvalue = 1.0"] ;
41 -> 42 ;
43 [label="mse = 0.0\nsamples = 3\nvalue = 0.0"] ;
41 -> 43 ;
44 [label="chol <= 242.0\nmse = 0.109\nsamples = 24\nvalue = 0.125"] ;
16 -> 44 ;
45 [label="mse = 0.0\nsamples = 18\nvalue = 0.0"] ;
44 -> 45 ;
46 [label="thalach <= 132.5\nmse = 0.25\nsamples = 6\nvalue = 0.5"] ;
44 -> 46 ;
47 [label="mse = 0.0\nsamples = 3\nvalue = 0.0"] ;
46 -> 47 ;
48 [label="mse = 0.0\nsamples = 3\nvalue = 1.0"] ;
46 -> 48 ;
49 [label="mse = 0.0\nsamples = 6\nvalue = 1.0"] ;
13 -> 49 ;
50 [label="thalach <= 132.5\nmse = 0.107\nsamples = 205\nvalue = 0.122"] ;
6 -> 50 ;
51 [label="age <= 63.5\nmse = 0.051\nsamples = 111\nvalue = 0.054"] ;
50 -> 51 ;
52 [label="mse = 0.0\nsamples = 79\nvalue = 0.0"] ;
51 -> 52 ;
53 [label="age <= 64.5\nmse = 0.152\nsamples = 32\nvalue = 0.188"] ;
51 -> 53 ;
54 [label="trestbps <= 126.5\nmse = 0.245\nsamples = 14\nvalue = 0.429"] ;
53 -> 54 ;
55 [label="mse = 0.0\nsamples = 8\nvalue = 0.0"] ;
54 -> 55 ;
56 [label="mse = 0.0\nsamples = 6\nvalue = 1.0"] ;
54 -> 56 ;
57 [label="mse = 0.0\nsamples = 18\nvalue = 0.0"] ;
53 -> 57 ;
58 [label="age <= 54.5\nmse = 0.161\nsamples = 94\nvalue = 0.202"] ;
50 -> 58 ;
59 [label="age <= 47.0\nmse = 0.246\nsamples = 30\nvalue = 0.433"] ;
58 -> 59 ;
60 [label="mse = 0.0\nsamples = 14\nvalue = 0.0"] ;
59 -> 60 ;
61 [label="chol <= 290.0\nmse = 0.152\nsamples = 16\nvalue = 0.812"] ;
59 -> 61 ;
62 [label="mse = 0.0\nsamples = 10\nvalue = 1.0"] ;
61 -> 62 ;
63 [label="trestbps <= 135.0\nmse = 0.25\nsamples = 6\nvalue = 0.5"] ;
61 -> 63 ;
64 [label="mse = 0.0\nsamples = 3\nvalue = 0.0"] ;
63 -> 64 ;
65 [label="mse = 0.0\nsamples = 3\nvalue = 1.0"] ;
63 -> 65 ;
66 [label="age <= 63.5\nmse = 0.085\nsamples = 64\nvalue = 0.094"] ;
58 -> 66 ;
67 [label="trestbps <= 176.0\nmse = 0.049\nsamples = 58\nvalue = 0.052"] ;
66 -> 67 ;
68 [label="mse = 0.0\nsamples = 51\nvalue = 0.0"] ;
67 -> 68 ;
69 [label="thalach <= 139.0\nmse = 0.245\nsamples = 7\nvalue = 0.429"] ;
67 -> 69 ;
70 [label="mse = 0.0\nsamples = 4\nvalue = 0.0"] ;
69 -> 70 ;
71 [label="mse = 0.0\nsamples = 3\nvalue = 1.0"] ;
69 -> 71 ;
72 [label="chol <= 283.5\nmse = 0.25\nsamples = 6\nvalue = 0.5"] ;
66 -> 72 ;
73 [label="mse = 0.0\nsamples = 3\nvalue = 0.0"] ;
72 -> 73 ;
74 [label="mse = 0.0\nsamples = 3\nvalue = 1.0"] ;
72 -> 74 ;
75 [label="mse = 0.0\nsamples = 14\nvalue = 1.0"] ;
1 -> 75 ;
76 [label="age <= 56.5\nmse = 0.212\nsamples = 582\nvalue = 0.694"] ;
0 -> 76 [labeldistance=2.5, labelangle=-45, headlabel="False"] ;
77 [label="thalach <= 168.5\nmse = 0.149\nsamples = 367\nvalue = 0.817"] ;
76 -> 77 ;
78 [label="age <= 53.5\nmse = 0.191\nsamples = 190\nvalue = 0.742"] ;
77 -> 78 ;
79 [label="age <= 51.5\nmse = 0.219\nsamples = 142\nvalue = 0.676"] ;
78 -> 79 ;
80 [label="chol <= 228.0\nmse = 0.184\nsamples = 111\nvalue = 0.757"] ;
79 -> 80 ;
81 [label="chol <= 174.5\nmse = 0.066\nsamples = 42\nvalue = 0.929"] ;
80 -> 81 ;
82 [label="mse = 0.0\nsamples = 3\nvalue = 0.0"] ;
81 -> 82 ;
83 [label="mse = 0.0\nsamples = 39\nvalue = 1.0"] ;
81 -> 83 ;
84 [label="chol <= 234.0\nmse = 0.227\nsamples = 69\nvalue = 0.652"] ;
80 -> 84 ;
85 [label="mse = 0.0\nsamples = 7\nvalue = 0.0"] ;
84 -> 85 ;
86 [label="age <= 48.5\nmse = 0.199\nsamples = 62\nvalue = 0.726"] ;
84 -> 86 ;
87 [label="age <= 46.5\nmse = 0.243\nsamples = 41\nvalue = 0.585"] ;
86 -> 87 ;
88 [label="age <= 38.0\nmse = 0.173\nsamples = 27\nvalue = 0.778"] ;
87 -> 88 ;
89 [label="mse = 0.0\nsamples = 3\nvalue = 0.0"] ;
88 -> 89 ;
90 [label="trestbps <= 115.0\nmse = 0.109\nsamples = 24\nvalue = 0.875"] ;
88 -> 90 ;
91 [label="trestbps <= 111.0\nmse = 0.25\nsamples = 6\nvalue = 0.5"] ;
90 -> 91 ;
92 [label="mse = 0.0\nsamples = 3\nvalue = 1.0"] ;
91 -> 92 ;
93 [label="mse = 0.0\nsamples = 3\nvalue = 0.0"] ;
91 -> 93 ;
94 [label="mse = 0.0\nsamples = 18\nvalue = 1.0"] ;
90 -> 94 ;
95 [label="trestbps <= 134.0\nmse = 0.168\nsamples = 14\nvalue = 0.214"] ;
87 -> 95 ;
96 [label="mse = 0.0\nsamples = 11\nvalue = 0.0"] ;
95 -> 96 ;
97 [label="mse = 0.0\nsamples = 3\nvalue = 1.0"] ;
95 -> 97 ;
98 [label="mse = 0.0\nsamples = 21\nvalue = 1.0"] ;
86 -> 98 ;
99 [label="chol <= 202.0\nmse = 0.237\nsamples = 31\nvalue = 0.387"] ;
79 -> 99 ;
100 [label="mse = 0.0\nsamples = 9\nvalue = 1.0"] ;
99 -> 100 ;
101 [label="chol <= 232.0\nmse = 0.118\nsamples = 22\nvalue = 0.136"] ;
99 -> 101 ;
102 [label="mse = 0.0\nsamples = 16\nvalue = 0.0"] ;
101 -> 102 ;
103 [label="trestbps <= 133.0\nmse = 0.25\nsamples = 6\nvalue = 0.5"] ;
101 -> 103 ;
104 [label="mse = 0.0\nsamples = 3\nvalue = 0.0"] ;
103 -> 104 ;
105 [label="mse = 0.0\nsamples = 3\nvalue = 1.0"] ;
103 -> 105 ;
106 [label="chol <= 375.5\nmse = 0.059\nsamples = 48\nvalue = 0.938"] ;
78 -> 106 ;
107 [label="mse = 0.0\nsamples = 45\nvalue = 1.0"] ;
106 -> 107 ;
108 [label="mse = 0.0\nsamples = 3\nvalue = 0.0"] ;
106 -> 108 ;
109 [label="trestbps <= 151.0\nmse = 0.091\nsamples = 177\nvalue = 0.898"] ;
77 -> 109 ;
110 [label="chol <= 283.5\nmse = 0.062\nsamples = 167\nvalue = 0.934"] ;
109 -> 110 ;
111 [label="trestbps <= 111.0\nmse = 0.045\nsamples = 148\nvalue = 0.953"] ;
110 -> 111 ;
112 [label="trestbps <= 109.0\nmse = 0.188\nsamples = 12\nvalue = 0.75"] ;
111 -> 112 ;
113 [label="mse = 0.0\nsamples = 9\nvalue = 1.0"] ;
112 -> 113 ;
114 [label="mse = 0.0\nsamples = 3\nvalue = 0.0"] ;
112 -> 114 ;
115 [label="age <= 39.0\nmse = 0.029\nsamples = 136\nvalue = 0.971"] ;
111 -> 115 ;
116 [label="chol <= 223.0\nmse = 0.099\nsamples = 36\nvalue = 0.889"] ;
115 -> 116 ;
117 [label="mse = 0.0\nsamples = 29\nvalue = 1.0"] ;
116 -> 117 ;
118 [label="chol <= 240.5\nmse = 0.245\nsamples = 7\nvalue = 0.429"] ;
116 -> 118 ;
119 [label="mse = 0.0\nsamples = 4\nvalue = 0.0"] ;
118 -> 119 ;
120 [label="mse = 0.0\nsamples = 3\nvalue = 1.0"] ;
118 -> 120 ;
121 [label="mse = 0.0\nsamples = 100\nvalue = 1.0"] ;
115 -> 121 ;
122 [label="chol <= 301.0\nmse = 0.166\nsamples = 19\nvalue = 0.789"] ;
110 -> 122 ;
123 [label="mse = 0.0\nsamples = 4\nvalue = 0.0"] ;
122 -> 123 ;
124 [label="mse = 0.0\nsamples = 15\nvalue = 1.0"] ;
122 -> 124 ;
125 [label="thalach <= 179.5\nmse = 0.21\nsamples = 10\nvalue = 0.3"] ;
109 -> 125 ;
126 [label="mse = 0.0\nsamples = 3\nvalue = 1.0"] ;
125 -> 126 ;
127 [label="mse = 0.0\nsamples = 7\nvalue = 0.0"] ;
125 -> 127 ;
128 [label="chol <= 337.5\nmse = 0.25\nsamples = 215\nvalue = 0.484"] ;
76 -> 128 ;
129 [label="trestbps <= 134.5\nmse = 0.247\nsamples = 193\nvalue = 0.446"] ;
128 -> 129 ;
130 [label="thalach <= 155.0\nmse = 0.211\nsamples = 73\nvalue = 0.301"] ;
129 -> 130 ;
131 [label="age <= 57.5\nmse = 0.213\nsamples = 13\nvalue = 0.692"] ;
130 -> 131 ;
132 [label="mse = 0.0\nsamples = 4\nvalue = 0.0"] ;
131 -> 132 ;
133 [label="mse = 0.0\nsamples = 9\nvalue = 1.0"] ;
131 -> 133 ;
134 [label="chol <= 216.5\nmse = 0.17\nsamples = 60\nvalue = 0.217"] ;
130 -> 134 ;
135 [label="chol <= 205.5\nmse = 0.231\nsamples = 11\nvalue = 0.636"] ;
134 -> 135 ;
136 [label="mse = 0.0\nsamples = 4\nvalue = 0.0"] ;
135 -> 136 ;
137 [label="mse = 0.0\nsamples = 7\nvalue = 1.0"] ;
135 -> 137 ;
138 [label="chol <= 301.5\nmse = 0.107\nsamples = 49\nvalue = 0.122"] ;
134 -> 138 ;
139 [label="mse = 0.0\nsamples = 36\nvalue = 0.0"] ;
138 -> 139 ;
140 [label="age <= 60.5\nmse = 0.249\nsamples = 13\nvalue = 0.462"] ;
138 -> 140 ;
141 [label="mse = 0.0\nsamples = 6\nvalue = 1.0"] ;
140 -> 141 ;
142 [label="mse = 0.0\nsamples = 7\nvalue = 0.0"] ;
140 -> 142 ;
143 [label="thalach <= 170.5\nmse = 0.249\nsamples = 120\nvalue = 0.533"] ;
129 -> 143 ;
144 [label="thalach <= 149.0\nmse = 0.247\nsamples = 94\nvalue = 0.447"] ;
143 -> 144 ;
145 [label="mse = 0.0\nsamples = 6\nvalue = 1.0"] ;
144 -> 145 ;
146 [label="age <= 68.5\nmse = 0.242\nsamples = 88\nvalue = 0.409"] ;
144 -> 146 ;
147 [label="chol <= 207.0\nmse = 0.232\nsamples = 82\nvalue = 0.366"] ;
146 -> 147 ;
148 [label="mse = 0.0\nsamples = 11\nvalue = 0.0"] ;
147 -> 148 ;
149 [label="chol <= 227.5\nmse = 0.244\nsamples = 71\nvalue = 0.423"] ;
147 -> 149 ;
150 [label="thalach <= 152.5\nmse = 0.173\nsamples = 18\nvalue = 0.778"] ;
149 -> 150 ;
151 [label="mse = 0.0\nsamples = 4\nvalue = 0.0"] ;
150 -> 151 ;
152 [label="mse = 0.0\nsamples = 14\nvalue = 1.0"] ;
150 -> 152 ;
153 [label="trestbps <= 135.5\nmse = 0.211\nsamples = 53\nvalue = 0.302"] ;
149 -> 153 ;
154 [label="mse = 0.0\nsamples = 3\nvalue = 1.0"] ;
153 -> 154 ;
155 [label="thalach <= 155.5\nmse = 0.192\nsamples = 50\nvalue = 0.26"] ;
153 -> 155 ;
156 [label="age <= 62.5\nmse = 0.25\nsamples = 20\nvalue = 0.5"] ;
155 -> 156 ;
157 [label="mse = 0.0\nsamples = 7\nvalue = 0.0"] ;
156 -> 157 ;
158 [label="age <= 67.0\nmse = 0.178\nsamples = 13\nvalue = 0.769"] ;
156 -> 158 ;
159 [label="mse = 0.0\nsamples = 10\nvalue = 1.0"] ;
158 -> 159 ;
160 [label="mse = 0.0\nsamples = 3\nvalue = 0.0"] ;
158 -> 160 ;
161 [label="age <= 58.5\nmse = 0.09\nsamples = 30\nvalue = 0.1"] ;
155 -> 161 ;
162 [label="thalach <= 163.0\nmse = 0.245\nsamples = 7\nvalue = 0.429"] ;
161 -> 162 ;
163 [label="mse = 0.0\nsamples = 3\nvalue = 1.0"] ;
162 -> 163 ;
164 [label="mse = 0.0\nsamples = 4\nvalue = 0.0"] ;
162 -> 164 ;
165 [label="mse = 0.0\nsamples = 23\nvalue = 0.0"] ;
161 -> 165 ;
166 [label="mse = 0.0\nsamples = 6\nvalue = 1.0"] ;
146 -> 166 ;
167 [label="chol <= 279.5\nmse = 0.13\nsamples = 26\nvalue = 0.846"] ;
143 -> 167 ;
168 [label="mse = 0.0\nsamples = 22\nvalue = 1.0"] ;
167 -> 168 ;
169 [label="mse = 0.0\nsamples = 4\nvalue = 0.0"] ;
167 -> 169 ;
170 [label="trestbps <= 145.0\nmse = 0.149\nsamples = 22\nvalue = 0.818"] ;
128 -> 170 ;
171 [label="mse = 0.0\nsamples = 15\nvalue = 1.0"] ;
170 -> 171 ;
172 [label="chol <= 383.5\nmse = 0.245\nsamples = 7\nvalue = 0.429"] ;
170 -> 172 ;
173 [label="mse = 0.0\nsamples = 3\nvalue = 1.0"] ;
172 -> 173 ;
174 [label="mse = 0.0\nsamples = 4\nvalue = 0.0"] ;
172 -> 174 ;
}